{"levels":[{"inputs":[0,0,0,0,0,0,0,0,0,0,0,0,0,0,0,0,0,0,0.14120381732150522,0.2474371509299058,0.32749114237193966,0.3895787347561348,0.43877559836360924,0.4783832495865359],"outputs":[0,1,0,1,0,0],"biases":[0.7107682437571223,-0.9576273328125957,0.4712778066922363,-0.00011544790038042763,0.5138497375131479,-0.07823352909398995],"weights":[[-0.26373073612842246,-0.8592817480774686,-0.8917176109933838,-0.10042585714089203,0.5885504984059411,-0.4875562247789804],[-0.3467319371545394,-0.9691865276829015,0.9854408933797312,-0.8213391499103513,-0.45955069566224926,0.37750217657228724],[-0.03851996508750144,-0.01126272435547504,-0.7412457126123271,0.5092591333646772,-0.5073244876758896,0.7766397272063674],[0.3387678779973182,-0.5751472727064582,-0.1245243724444074,-0.9431375850349393,-0.7980066700183652,0.16518701214761222],[0.5093062648612521,0.9302460281407567,-0.44025863564732415,-0.017190265020951223,-0.5359053601922836,-0.8922805084070786],[0.5201115498700255,0.6839735739298307,0.09361544148459222,-0.4012062392919633,-0.47170793567190605,0.24161400072409123],[-0.33843170678281886,0.2460316021420632,-0.24707468268733912,0.4691651493186688,0.22290569623151146,-0.4318865759329542],[0.01297887190226188,0.2714053202788307,0.7542156610800297,-0.8488516049119594,0.18695173062050685,0.8201640660908649],[0.8611873548305553,-0.14002837908699295,-0.38055877445199293,-0.03265443952205871,0.18584648083890754,0.7953651043021037],[0.3667528475176707,0.8800160251020497,0.4921347803172931,-0.9597522509396708,-0.11101846948834071,0.05200456294137057],[0.09555136724266422,0.024108061126517644,0.5727064072872543,0.5096250878442641,0.3564406986507982,0.5787269237596804],[-0.8620563837305171,0.7837503551639884,-0.0018397474413909265,0.48077634544462367,-0.888844776478098,0.20330885957125622],[0.2795463129449103,-0.9118227488094908,-0.3077385573520579,0.19170732364213317,-0.3110397828481637,-0.7630210230592049],[-0.3250436632722318,-0.07587212466617776,0.8273574801128767,-0.4667623378976815,-0.6523145426495507,0.432150810554381],[-0.9268251484690446,0.021070298503415685,0.1547782645799134,0.6729287573804092,0.5657936460577044,0.8802969296410246],[-0.390539297118516,0.9302404613595012,-0.8585875825619724,0.3170421846424438,0.18442563441210735,-0.2556752261825235],[0.797029538866791,0.13215188091678431,0.2922532144293224,0.4683066741116022,-0.7191264057389386,0.325213001699169],[-0.2648098875877354,-0.2734211285321164,-0.7349881800407001,0.7291792945429756,0.7666836070005916,-0.34037770787267396],[0.8749471546113825,-0.4429993658729585,-0.6845666162343491,0.7954844338584683,0.9624155075379206,-0.1122061170128048],[-0.7435832822181583,0.056715211085710315,-0.9432037762982146,0.8887683020584523,-0.9335695185567694,0.35315431237705885],[0.7245422536852333,0.5841342763058659,0.07754817565807581,-0.7373715911958354,0.32941055517090634,-0.048892987853991876],[-0.7905588659000156,-0.09246442527646259,-0.416296925096836,0.5082304473663548,0.7268431994091165,-0.09128632365821421],[-0.46173836501797805,0.6751749281293447,-0.9969888749364735,-0.8314571943040163,-0.7434601288764187,0.243203798679418],[-0.3375861838043308,-0.9271996591948426,-0.9048244192130679,0.24851050478174352,0.5929675922073292,-0.9423076330742646]]},{"inputs":[0,1,0,1,0,0],"outputs":[1,1,0,1],"biases":[-0.9089145402843637,-0.38968255716951017,-0.9801749519544427,0.5892995670193955],"weights":[[0.7937639519948503,-0.6030114565848739,0.9694939063138022,0.6193139567519137],[-0.8829578779153211,-0.5434880295650641,-0.9000145864208702,0.26338329080400014],[0.3581726556952529,-0.3819460240685588,0.33005053641533344,0.6273158094006241],[0.7188259721396366,0.5298478152674968,-0.6855980829052815,0.39307721865931056],[0.7283671566598184,0.03428886368369044,0.2746927686447993,-0.6979658586071813],[0.8373890953953076,-0.8629510737513102,0.39018995624977926,0.2655844702588186]]}]}